<?xml version="1.0" encoding="utf-8"?>
<PMML xmlns="http://www.dmg.org/PMML-4_3" version="4.3">
   <Header copyright="DMG.org"/>
   <DataDictionary numberOfFields="3">
      <DataField dataType="double" name="x1" optype="continuous"/>
      <DataField dataType="double" name="x2" optype="continuous"/>
      <DataField dataType="double" name="y1" optype="continuous"/>
   </DataDictionary>
   <GaussianProcessModel functionName="regression" modelName="Gaussian Process Model">
      <MiningSchema>
         <MiningField name="x1" usageType="active"/>
         <MiningField name="x2" usageType="active"/>
         <MiningField name="y1" usageType="predicted"/>
      </MiningSchema>
      <Output>
         <OutputField dataType="double" feature="predictedValue" name="MeanValue" optype="continuous"/>
         <OutputField dataType="double" feature="predictedValue" name="StandardDeviation" optype="continuous"/>
      </Output>
      <ARDSquaredExponentialKernel gamma="2.489" noiseVariance="0.011046">
         <Lambda>
            <array n="2" type="real">1.516400 59.311300</array>
         </Lambda>
      </ARDSquaredExponentialKernel>
      <TrainingInstances fieldCount="3" isTransformed="false" recordCount="2">
         <InstanceFields>
            <InstanceField column="x1" field="x1"/>
            <InstanceField column="x2" field="x2"/>
            <InstanceField column="y1" field="y1"/>
         </InstanceFields>
         <InlineTable>
            <row>
               <x1>1</x1>
               <x2>3</x2>
               <y1>1</y1>
            </row>
            <row>
               <x1>2</x1>
               <x2>6</x2>
               <y1>2</y1>
            </row>
         </InlineTable>
      </TrainingInstances>
   </GaussianProcessModel>
</PMML>